{"sizes":[65,32,1],"layers":[{"0":{},"1":{},"2":{},"3":{},"4":{},"5":{},"6":{},"7":{},"8":{},"9":{},"10":{},"11":{},"12":{},"13":{},"14":{},"15":{},"16":{},"17":{},"18":{},"19":{},"20":{},"21":{},"22":{},"23":{},"24":{},"25":{},"26":{},"27":{},"28":{},"29":{},"30":{},"31":{},"32":{},"33":{},"34":{},"35":{},"36":{},"37":{},"38":{},"39":{},"40":{},"41":{},"42":{},"43":{},"44":{},"45":{},"46":{},"47":{},"48":{},"49":{},"50":{},"51":{},"52":{},"53":{},"54":{},"55":{},"56":{},"57":{},"58":{},"59":{},"60":{},"61":{},"62":{},"63":{},"64":{}},{"0":{"bias":-8.898519515991211,"weights":{"0":0.24982433021068573,"1":15.254443168640137,"2":-19.38831329345703,"3":31.55586814880371,"4":22.488473892211914,"5":3.760232925415039,"6":-13.70437240600586,"7":23.740270614624023,"8":-34.39419174194336,"9":22.71640396118164,"10":2.7291436195373535,"11":-23.316558837890625,"12":-2.2837271690368652,"13":9.715598106384277,"14":-11.409162521362305,"15":14.913464546203613,"16":-12.787116050720215,"17":-38.7769889831543,"18":11.03988265991211,"19":9.920339584350586,"20":4.052498817443848,"21":-18.802133560180664,"22":10.92765998840332,"23":25.795873641967773,"24":-4.4594268798828125,"25":-15.144044876098633,"26":-1.4630873203277588,"27":-10.637956619262695,"28":-17.341318130493164,"29":2.204828977584839,"30":-14.590961456298828,"31":23.90889549255371,"32":-0.00827314704656601,"33":-3.437596559524536,"34":-3.904834747314453,"35":-17.941425323486328,"36":-25.16071128845215,"37":-12.000737190246582,"38":-2.0924782752990723,"39":8.87922477722168,"40":-43.98146057128906,"41":-48.27073669433594,"42":39.06393051147461,"43":8.944173812866211,"44":-38.722896575927734,"45":40.21242904663086,"46":8.352025985717773,"47":19.385879516601562,"48":13.511120796203613,"49":5.489458084106445,"50":-23.652061462402344,"51":11.272830963134766,"52":-16.699321746826172,"53":-9.44420051574707,"54":-9.030683517456055,"55":2.5644569396972656,"56":-9.133766174316406,"57":5.759668350219727,"58":-7.658928871154785,"59":-0.9714688062667847,"60":-5.943068027496338,"61":3.8706278800964355,"62":11.418410301208496,"63":-3.981243133544922,"64":-10.997981071472168}},"1":{"bias":152.00894165039062,"weights":{"0":1.628142237663269,"1":-1.4123165607452393,"2":8.97463607788086,"3":-5.35983419418335,"4":-0.6510818004608154,"5":2.2903988361358643,"6":3.4716403484344482,"7":-24.869672775268555,"8":1.8694713115692139,"9":19.754159927368164,"10":14.013435363769531,"11":6.216844081878662,"12":0.9550196528434753,"13":-4.7978196144104,"14":-48.37819290161133,"15":20.325496673583984,"16":23.202526092529297,"17":-45.070709228515625,"18":-3.612867593765259,"19":-13.437494277954102,"20":-0.522794783115387,"21":-28.69375991821289,"22":-74.88131713867188,"23":-33.934104919433594,"24":13.76688003540039,"25":-29.312501907348633,"26":-27.046602249145508,"27":-31.796859741210938,"28":-24.296695709228516,"29":-5.188676834106445,"30":-0.5758594870567322,"31":-10.334643363952637,"32":-4.759542465209961,"33":31.66019630432129,"34":-26.679588317871094,"35":-44.19940185546875,"36":-19.04706382751465,"37":-6.209996700286865,"38":-18.567148208618164,"39":-28.282413482666016,"40":-59.500404357910156,"41":-23.6884708404541,"42":6.315700531005859,"43":-8.670047760009766,"44":-6.974662780761719,"45":7.391403675079346,"46":1.554789423942566,"47":-48.68753433227539,"48":-2.519845485687256,"49":-9.00421142578125,"50":8.404950141906738,"51":0.8505167961120605,"52":8.344965934753418,"53":12.20590877532959,"54":-12.296222686767578,"55":-14.456218719482422,"56":-27.267433166503906,"57":-48.29729080200195,"58":32.36647415161133,"59":10.746028900146484,"60":16.17976951599121,"61":-0.9517809152603149,"62":-25.688777923583984,"63":66.84861755371094,"64":-8.698793411254883}},"2":{"bias":-36.45598220825195,"weights":{"0":-1.3207453489303589,"1":5.955615997314453,"2":-33.406402587890625,"3":-13.949552536010742,"4":-4.282247543334961,"5":-5.209203243255615,"6":-2.9077696800231934,"7":-7.233590602874756,"8":-8.650459289550781,"9":43.05327224731445,"10":9.284499168395996,"11":-21.73552703857422,"12":7.752227306365967,"13":3.996154308319092,"14":-10.924402236938477,"15":7.142849445343018,"16":-22.77669906616211,"17":23.67378807067871,"18":31.37217903137207,"19":-3.272722005844116,"20":-17.929248809814453,"21":2.1284544467926025,"22":-2.4054763317108154,"23":11.421467781066895,"24":1.6404668092727661,"25":5.973979473114014,"26":3.7138936519622803,"27":13.2523193359375,"28":4.329855918884277,"29":16.198204040527344,"30":-4.9596476554870605,"31":13.23961067199707,"32":-9.351543426513672,"33":-18.11920166015625,"34":-12.71739387512207,"35":-18.541423797607422,"36":18.872333526611328,"37":-7.4956865310668945,"38":12.125629425048828,"39":17.12327003479004,"40":-9.420074462890625,"41":-0.980951189994812,"42":-2.6056296825408936,"43":20.877965927124023,"44":0.2915731370449066,"45":6.69473123550415,"46":29.043060302734375,"47":17.35525894165039,"48":8.001399040222168,"49":-5.141829490661621,"50":25.11703872680664,"51":13.812088966369629,"52":4.337251663208008,"53":-12.340956687927246,"54":-0.8135372996330261,"55":5.4418511390686035,"56":16.109691619873047,"57":16.88594627380371,"58":-5.811880588531494,"59":12.034391403198242,"60":-17.360618591308594,"61":10.687234878540039,"62":-16.525835037231445,"63":19.591903686523438,"64":5.2257256507873535}},"3":{"bias":-22.25432586669922,"weights":{"0":-0.4328535497188568,"1":16.895116806030273,"2":-7.8210062980651855,"3":0.8241260051727295,"4":-12.255805015563965,"5":-21.6135196685791,"6":-18.25459098815918,"7":-2.1190083026885986,"8":-10.166121482849121,"9":-16.923261642456055,"10":-29.390653610229492,"11":-14.728771209716797,"12":3.269196033477783,"13":10.101338386535645,"14":-7.271494388580322,"15":3.8954946994781494,"16":8.766910552978516,"17":-56.3721923828125,"18":4.253528594970703,"19":18.96767234802246,"20":-19.820175170898438,"21":13.808326721191406,"22":13.373053550720215,"23":-0.7589083313941956,"24":8.827322959899902,"25":23.28912925720215,"26":-43.15730285644531,"27":-6.425447940826416,"28":18.579652786254883,"29":3.877734661102295,"30":4.339856147766113,"31":3.218898296356201,"32":-12.279052734375,"33":-0.18532299995422363,"34":30.697402954101562,"35":7.490561485290527,"36":-1.824495553970337,"37":-2.239381790161133,"38":12.390046119689941,"39":-0.08628371357917786,"40":-8.154322624206543,"41":14.627038955688477,"42":17.127119064331055,"43":0.6292311549186707,"44":-7.250192165374756,"45":9.195427894592285,"46":-7.77816104888916,"47":9.473837852478027,"48":-5.977978706359863,"49":2.2099008560180664,"50":13.698469161987305,"51":7.303751468658447,"52":18.844205856323242,"53":14.203857421875,"54":-5.234035491943359,"55":-11.856101036071777,"56":-14.552050590515137,"57":-10.605683326721191,"58":-10.14235782623291,"59":0.6622986793518066,"60":-0.9088031649589539,"61":-6.984210968017578,"62":17.695152282714844,"63":-23.750938415527344,"64":-3.947234869003296}},"4":{"bias":70.90654754638672,"weights":{"0":-0.1745871901512146,"1":-25.912015914916992,"2":5.551261901855469,"3":26.903154373168945,"4":3.091104507446289,"5":-29.175973892211914,"6":-6.58261775970459,"7":14.434769630432129,"8":12.663288116455078,"9":41.71953201293945,"10":-28.115524291992188,"11":5.9823222160339355,"12":6.471747398376465,"13":-23.334369659423828,"14":-28.04593849182129,"15":-14.648393630981445,"16":-5.483870029449463,"17":-41.767826080322266,"18":18.037456512451172,"19":-49.717288970947266,"20":-44.29033279418945,"21":-12.457026481628418,"22":-24.52225112915039,"23":-7.657769203186035,"24":14.529130935668945,"25":-18.47797966003418,"26":-13.34102725982666,"27":51.37055969238281,"28":15.230363845825195,"29":3.1623318195343018,"30":-3.1425981521606445,"31":-8.830231666564941,"32":-9.289900779724121,"33":-3.629671335220337,"34":-23.832761764526367,"35":-12.332964897155762,"36":-13.22695541381836,"37":-20.524364471435547,"38":-3.499148368835449,"39":17.59235954284668,"40":2.2081286907196045,"41":17.206287384033203,"42":19.964086532592773,"43":-11.58471965789795,"44":-1.9935011863708496,"45":2.182443618774414,"46":-3.6492371559143066,"47":-7.05465841293335,"48":1.4110528230667114,"49":-6.071164131164551,"50":-21.963340759277344,"51":-33.367774963378906,"52":-43.58038330078125,"53":-2.961716651916504,"54":-5.41441535949707,"55":91.6408462524414,"56":-24.19725227355957,"57":-8.744471549987793,"58":-31.40896987915039,"59":-43.99595260620117,"60":-12.177193641662598,"61":27.73877716064453,"62":-28.80408477783203,"63":-26.943111419677734,"64":27.266733169555664}},"5":{"bias":24.447429656982422,"weights":{"0":1.9695158004760742,"1":-2.7455344200134277,"2":-3.8927078247070312,"3":-19.197189331054688,"4":17.940723419189453,"5":-9.684459686279297,"6":-5.585679054260254,"7":-14.318615913391113,"8":-21.342931747436523,"9":-84.75301361083984,"10":-53.844268798828125,"11":-42.062950134277344,"12":7.376097679138184,"13":-5.839130401611328,"14":-12.321443557739258,"15":20.731565475463867,"16":-15.72329330444336,"17":48.746116638183594,"18":14.082684516906738,"19":-10.954385757446289,"20":-16.1871395111084,"21":4.0140700340271,"22":11.926267623901367,"23":9.780787467956543,"24":-23.74909782409668,"25":-7.634917259216309,"26":-17.275577545166016,"27":-22.785358428955078,"28":13.233914375305176,"29":-72.66082000732422,"30":-9.736539840698242,"31":16.15379524230957,"32":12.8279447555542,"33":9.579419136047363,"34":-12.044031143188477,"35":-27.26005744934082,"36":-10.235064506530762,"37":7.30588960647583,"38":-38.281036376953125,"39":8.666512489318848,"40":49.10700225830078,"41":36.475852966308594,"42":-25.807117462158203,"43":-32.672630310058594,"44":14.682768821716309,"45":20.121992111206055,"46":52.0177001953125,"47":14.114094734191895,"48":30.662954330444336,"49":-11.981789588928223,"50":49.83842849731445,"51":-52.014068603515625,"52":-27.607404708862305,"53":2.265955924987793,"54":43.53352737426758,"55":18.031028747558594,"56":-24.432735443115234,"57":0.49522778391838074,"58":-20.775306701660156,"59":-21.028213500976562,"60":1.3156310319900513,"61":-17.338958740234375,"62":44.981201171875,"63":-58.50390625,"64":-37.347259521484375}},"6":{"bias":4.443370342254639,"weights":{"0":-0.5442564487457275,"1":-0.5850415229797363,"2":5.419290542602539,"3":-2.6744818687438965,"4":4.106086254119873,"5":1.9146674871444702,"6":-2.639275550842285,"7":-3.039992332458496,"8":7.324047565460205,"9":-1.9100227355957031,"10":2.059969425201416,"11":2.4273080825805664,"12":-0.9071851968765259,"13":1.3048717975616455,"14":1.3462426662445068,"15":-0.9308547377586365,"16":-0.8161616325378418,"17":1.415396809577942,"18":-2.3224575519561768,"19":-3.3668859004974365,"20":-0.49607542157173157,"21":0.29243186116218567,"22":-3.359387159347534,"23":3.480513572692871,"24":1.9303486347198486,"25":-1.5640286207199097,"26":-3.6127235889434814,"27":-2.247835636138916,"28":-0.23598888516426086,"29":1.131354808807373,"30":1.4508798122406006,"31":1.383027195930481,"32":4.9647088050842285,"33":-3.19118332862854,"34":0.027040651068091393,"35":1.034772515296936,"36":-2.9588019847869873,"37":-0.3887510895729065,"38":-1.101940631866455,"39":0.520823061466217,"40":-2.438549280166626,"41":0.6100621819496155,"42":-2.4255776405334473,"43":0.85539710521698,"44":-1.9196699857711792,"45":-2.133960008621216,"46":-4.946680068969727,"47":-3.7835566997528076,"48":3.3437118530273438,"49":-1.0926605463027954,"50":1.1804498434066772,"51":-1.059893250465393,"52":-4.316784858703613,"53":-5.827517032623291,"54":-4.075324535369873,"55":-4.412940502166748,"56":1.902181625366211,"57":-1.7801295518875122,"58":-1.6682403087615967,"59":-3.908047676086426,"60":-0.03767869248986244,"61":-3.4074854850769043,"62":-1.6744157075881958,"63":-1.6179615259170532,"64":-5.3709025382995605}},"7":{"bias":11.042903900146484,"weights":{"0":0.8088299036026001,"1":2.787475109100342,"2":1.0958566665649414,"3":2.523854970932007,"4":2.9459004402160645,"5":2.369382619857788,"6":0.25259339809417725,"7":1.6326097249984741,"8":1.9544906616210938,"9":-1.404888391494751,"10":1.0327086448669434,"11":-0.273072749376297,"12":-1.3821743726730347,"13":0.6407735347747803,"14":-2.000445604324341,"15":-0.23457756638526917,"16":0.12517619132995605,"17":-3.3622329235076904,"18":0.43642300367355347,"19":-0.8951402902603149,"20":0.7428727149963379,"21":-1.1903340816497803,"22":-1.8812086582183838,"23":-2.5964014530181885,"24":-0.294207364320755,"25":-2.2731873989105225,"26":-2.5415198802948,"27":-2.0800254344940186,"28":-1.825464129447937,"29":1.003212571144104,"30":-0.6215456128120422,"31":2.0276238918304443,"32":-3.612682819366455,"33":-1.2228823900222778,"34":0.9065341949462891,"35":-2.042367935180664,"36":0.7830780744552612,"37":0.4222640097141266,"38":0.29453691840171814,"39":1.5177459716796875,"40":1.9634370803833008,"41":0.5848292708396912,"42":0.1463296264410019,"43":-2.8316991329193115,"44":-2.972188949584961,"45":1.0814728736877441,"46":3.5548458099365234,"47":-3.006023406982422,"48":8.613511085510254,"49":3.5478382110595703,"50":-0.0531671978533268,"51":-1.2234176397323608,"52":1.8092758655548096,"53":-0.5471354722976685,"54":3.897068738937378,"55":4.654396057128906,"56":-3.022500514984131,"57":-2.6471107006073,"58":3.828437566757202,"59":1.742517352104187,"60":3.540262460708618,"61":5.443182945251465,"62":-0.16296350955963135,"63":5.690642833709717,"64":-6.342782974243164}},"8":{"bias":8.91858959197998,"weights":{"0":-0.47667399048805237,"1":6.704626560211182,"2":0.6042078733444214,"3":0.19015681743621826,"4":0.9884476661682129,"5":0.5335585474967957,"6":-1.9542391300201416,"7":0.12024422734975815,"8":-1.3401511907577515,"9":-0.3140529990196228,"10":0.7003445029258728,"11":2.5585718154907227,"12":0.4845772683620453,"13":-0.2315175086259842,"14":-2.129387378692627,"15":-2.090512752532959,"16":-2.025578498840332,"17":5.228322505950928,"18":-2.713817596435547,"19":-1.6881163120269775,"20":-1.8656439781188965,"21":0.5171725749969482,"22":-2.197472333908081,"23":1.086855411529541,"24":1.3770217895507812,"25":1.5657228231430054,"26":-2.4413931369781494,"27":-5.151673793792725,"28":1.0631657838821411,"29":1.9140880107879639,"30":-2.821079969406128,"31":3.122474431991577,"32":1.4544343948364258,"33":-7.872448921203613,"34":-1.9186855554580688,"35":0.5646206140518188,"36":-4.037866592407227,"37":-0.6073044538497925,"38":1.1617059707641602,"39":0.6947239637374878,"40":-0.2637251913547516,"41":-4.137384414672852,"42":-2.47110652923584,"43":0.8115177154541016,"44":-0.07699348777532578,"45":0.4689067006111145,"46":-0.6851398944854736,"47":-2.105647325515747,"48":4.448957920074463,"49":-4.5457963943481445,"50":2.178813934326172,"51":-1.7732330560684204,"52":-1.9470043182373047,"53":-2.4792561531066895,"54":-4.8655266761779785,"55":-1.699082374572754,"56":2.2058653831481934,"57":-4.286421775817871,"58":-2.710437059402466,"59":-5.158346652984619,"60":-0.46418097615242004,"61":-4.113560199737549,"62":-2.915985345840454,"63":-0.06941208243370056,"64":-5.666653633117676}},"9":{"bias":206.67501831054688,"weights":{"0":0.2774638235569,"1":-4.410832405090332,"2":-2.5265939235687256,"3":-4.901738166809082,"4":-4.726346492767334,"5":-4.23103666305542,"6":-3.6426916122436523,"7":-5.860597610473633,"8":-4.412691593170166,"9":-6.448823928833008,"10":-6.071174621582031,"11":-5.485278606414795,"12":-5.262481689453125,"13":-5.826094627380371,"14":-6.583074569702148,"15":-6.1093668937683105,"16":-5.105349540710449,"17":-3.192800283432007,"18":-6.09006929397583,"19":-7.83060884475708,"20":-6.654219627380371,"21":-6.515487194061279,"22":-7.566685676574707,"23":-6.028665065765381,"24":-4.55958890914917,"25":-7.835213661193848,"26":-6.951180934906006,"27":-7.907192707061768,"28":-7.530387878417969,"29":-6.262808799743652,"30":-6.18234395980835,"31":-7.691424369812012,"32":-5.6183905601501465,"33":-8.211607933044434,"34":-7.093791961669922,"35":-6.104244232177734,"36":-7.572598934173584,"37":-7.768106460571289,"38":-7.2068352699279785,"39":-5.651471138000488,"40":-7.041504859924316,"41":-9.592181205749512,"42":-6.177369117736816,"43":-6.7314934730529785,"44":-7.850411415100098,"45":-8.216064453125,"46":-6.99815034866333,"47":-6.5503034591674805,"48":-6.579066276550293,"49":-7.350067615509033,"50":-6.711674690246582,"51":-7.101291179656982,"52":-6.760391712188721,"53":-7.4515581130981445,"54":-7.804052352905273,"55":-7.777732849121094,"56":-8.960665702819824,"57":-8.609310150146484,"58":-7.637751579284668,"59":-6.156233310699463,"60":-5.707592010498047,"61":-6.603662967681885,"62":-7.103806972503662,"63":-9.157840728759766,"64":-6.688986778259277}},"10":{"bias":-143.77615356445312,"weights":{"0":-2.3048911094665527,"1":-9.128514289855957,"2":-1.2097200155258179,"3":0.4219575822353363,"4":10.967554092407227,"5":9.916036605834961,"6":8.877922058105469,"7":-0.021743355318903923,"8":2.6052980422973633,"9":-8.207632064819336,"10":22.61628532409668,"11":14.577995300292969,"12":18.7221622467041,"13":41.98197555541992,"14":8.06454086303711,"15":22.710647583007812,"16":-4.6511149406433105,"17":-9.694645881652832,"18":19.959381103515625,"19":8.161295890808105,"20":27.243629455566406,"21":18.957672119140625,"22":30.388673782348633,"23":33.44707107543945,"24":-42.21498107910156,"25":4.708140850067139,"26":-6.517897129058838,"27":-0.9127089381217957,"28":17.372053146362305,"29":11.44537353515625,"30":22.196313858032227,"31":32.03038787841797,"32":31.06728172302246,"33":-19.888967514038086,"34":-1.1446577310562134,"35":-8.005870819091797,"36":20.20929718017578,"37":4.289270877838135,"38":22.877511978149414,"39":16.454801559448242,"40":-2.0647523403167725,"41":-19.83876609802246,"42":16.082550048828125,"43":-12.427061080932617,"44":-10.780872344970703,"45":-12.078441619873047,"46":-0.09268882125616074,"47":9.919877052307129,"48":-5.464588642120361,"49":6.716754913330078,"50":11.418830871582031,"51":1.8751980066299438,"52":10.657097816467285,"53":-11.525784492492676,"54":-10.483220100402832,"55":-13.953278541564941,"56":-12.992210388183594,"57":-29.158201217651367,"58":-0.9097131490707397,"59":-9.861742973327637,"60":-18.655780792236328,"61":1.8058826923370361,"62":-4.414502143859863,"63":-25.172075271606445,"64":-21.664091110229492}},"11":{"bias":12.851205825805664,"weights":{"0":2.057300090789795,"1":17.16472816467285,"2":35.90179443359375,"3":11.23819637298584,"4":8.256714820861816,"5":-5.159048557281494,"6":-13.551334381103516,"7":6.332118034362793,"8":34.38014221191406,"9":-11.879809379577637,"10":-5.736721038818359,"11":10.905570983886719,"12":-18.1718692779541,"13":-2.9231886863708496,"14":1.7424732446670532,"15":-4.3453569412231445,"16":-10.616601943969727,"17":-34.26901626586914,"18":-3.217817783355713,"19":-16.42536163330078,"20":-6.294032096862793,"21":-30.3668212890625,"22":23.75457000732422,"23":-11.889447212219238,"24":0.5342780947685242,"25":7.243434906005859,"26":-43.19038009643555,"27":-49.2460823059082,"28":-40.4101676940918,"29":2.929199695587158,"30":-10.266057014465332,"31":3.0501785278320312,"32":15.449413299560547,"33":-20.283979415893555,"34":-15.976777076721191,"35":-0.2626807391643524,"36":-37.450096130371094,"37":-15.853235244750977,"38":48.40168762207031,"39":-11.289331436157227,"40":33.51321029663086,"41":25.800273895263672,"42":6.143598556518555,"43":14.547993659973145,"44":2.3243372440338135,"45":-10.376724243164062,"46":8.342884063720703,"47":20.419483184814453,"48":-12.921175003051758,"49":-14.88983154296875,"50":12.285958290100098,"51":-24.081016540527344,"52":-22.574737548828125,"53":-4.441853046417236,"54":5.629897594451904,"55":-15.12601089477539,"56":-44.91730499267578,"57":-14.029561042785645,"58":-18.400880813598633,"59":13.75901985168457,"60":-35.77248001098633,"61":-3.502065420150757,"62":8.142436981201172,"63":4.427536487579346,"64":53.74786376953125}},"12":{"bias":4.407270431518555,"weights":{"0":0.6232913136482239,"1":0.5011070966720581,"2":0.3673807382583618,"3":1.4752241373062134,"4":-1.6132944822311401,"5":2.8360137939453125,"6":0.4925014078617096,"7":-3.069110631942749,"8":2.247239351272583,"9":4.267355918884277,"10":0.41029810905456543,"11":2.976391315460205,"12":2.2544469833374023,"13":0.19621822237968445,"14":0.03046884946525097,"15":1.8486955165863037,"16":2.779808282852173,"17":-2.070563554763794,"18":-1.3038579225540161,"19":1.125702977180481,"20":0.8916855454444885,"21":-1.6702808141708374,"22":0.4530090391635895,"23":0.7058477997779846,"24":-2.287949562072754,"25":-1.1010230779647827,"26":1.2115602493286133,"27":1.3700636625289917,"28":-0.9287694096565247,"29":-0.24647250771522522,"30":-0.3026856482028961,"31":-2.541184425354004,"32":-0.615514874458313,"33":4.470082759857178,"34":0.4257642924785614,"35":-1.0801475048065186,"36":1.2827082872390747,"37":0.07244769483804703,"38":1.0116937160491943,"39":0.6184717416763306,"40":-0.5346153378486633,"41":-1.2828972339630127,"42":2.965101718902588,"43":1.7532116174697876,"44":-0.4200814962387085,"45":1.3640724420547485,"46":2.250633716583252,"47":1.9797934293746948,"48":-2.3173770904541016,"49":2.1131296157836914,"50":-0.7170870900154114,"51":1.9681323766708374,"52":1.2946313619613647,"53":2.1961960792541504,"54":0.4055671989917755,"55":0.3354583978652954,"56":0.901630163192749,"57":1.2894543409347534,"58":-1.7013541460037231,"59":-0.5943722724914551,"60":-0.13709156215190887,"61":-2.2846529483795166,"62":-0.0009520681342110038,"63":-2.4435436725616455,"64":6.205051422119141}},"13":{"bias":20.643352508544922,"weights":{"0":2.7934696674346924,"1":-0.8493701815605164,"2":-49.29510498046875,"3":4.299088954925537,"4":-19.94157600402832,"5":5.900393962860107,"6":22.12430191040039,"7":-1.2377705574035645,"8":5.809661388397217,"9":28.532724380493164,"10":13.052717208862305,"11":-7.673159122467041,"12":7.459301471710205,"13":-24.670743942260742,"14":10.297223091125488,"15":3.2012815475463867,"16":-13.928808212280273,"17":10.734160423278809,"18":14.867088317871094,"19":-1.783271074295044,"20":0.022455735132098198,"21":-15.631857872009277,"22":-8.16978931427002,"23":-1.9724880456924438,"24":15.869200706481934,"25":-1.8494832515716553,"26":-22.13273048400879,"27":-50.160057067871094,"28":-22.185043334960938,"29":4.96727991104126,"30":-31.983280181884766,"31":20.337854385375977,"32":-35.92659378051758,"33":-30.322887420654297,"34":-28.715980529785156,"35":-36.86270523071289,"36":-27.870962142944336,"37":-12.716682434082031,"38":25.175506591796875,"39":24.139005661010742,"40":23.88250732421875,"41":39.048179626464844,"42":-29.282142639160156,"43":41.78760528564453,"44":-1.5982418060302734,"45":-3.826521635055542,"46":18.330245971679688,"47":18.936050415039062,"48":35.816593170166016,"49":-16.320819854736328,"50":10.51097297668457,"51":9.616220474243164,"52":3.541722059249878,"53":-1.6296800374984741,"54":6.487332344055176,"55":-24.111665725708008,"56":11.088631629943848,"57":23.63669204711914,"58":-29.50965118408203,"59":-3.6269540786743164,"60":14.483658790588379,"61":-2.4825074672698975,"62":-21.163511276245117,"63":-54.29762649536133,"64":-55.15457534790039}},"14":{"bias":4.677523136138916,"weights":{"0":0.8213949799537659,"1":2.814035415649414,"2":1.382771372795105,"3":0.197590172290802,"4":2.743565320968628,"5":0.8139145970344543,"6":-1.0882771015167236,"7":-0.30173489451408386,"8":-1.351786494255066,"9":3.9731273651123047,"10":0.775946855545044,"11":0.30122143030166626,"12":-0.5959378480911255,"13":1.487610936164856,"14":-1.1122982501983643,"15":0.39833906292915344,"16":1.905641794204712,"17":-2.3628885746002197,"18":-1.8305332660675049,"19":-0.7919084429740906,"20":2.067781925201416,"21":-2.5877227783203125,"22":-1.5007193088531494,"23":2.6962690353393555,"24":3.4261248111724854,"25":0.059155967086553574,"26":0.9824767112731934,"27":0.8033567667007446,"28":-0.87517911195755,"29":-0.40388429164886475,"30":0.21697385609149933,"31":1.7247896194458008,"32":1.5656962394714355,"33":0.6555739641189575,"34":-1.1281014680862427,"35":2.3656668663024902,"36":-2.1003530025482178,"37":-0.22546347975730896,"38":1.46382474899292,"39":-0.4383467137813568,"40":1.057050347328186,"41":-1.0026421546936035,"42":1.4362390041351318,"43":-0.33051228523254395,"44":3.822744369506836,"45":-0.33959782123565674,"46":0.3570954203605652,"47":-1.2919787168502808,"48":4.2151312828063965,"49":7.079380989074707,"50":0.18920503556728363,"51":1.6803580522537231,"52":-1.4815319776535034,"53":1.7718404531478882,"54":0.7676909565925598,"55":-1.9055185317993164,"56":-2.969125986099243,"57":-5.251827239990234,"58":6.498019695281982,"59":3.056370973587036,"60":0.9722698330879211,"61":1.3494348526000977,"62":-2.5779013633728027,"63":1.505181908607483,"64":-0.11947694420814514}},"15":{"bias":1.881176471710205,"weights":{"0":-0.8569585084915161,"1":-1.5620602369308472,"2":-3.8193540573120117,"3":1.6252326965332031,"4":-5.295135021209717,"5":2.6657416820526123,"6":2.5028061866760254,"7":2.3367862701416016,"8":0.6738776564598083,"9":-4.395321369171143,"10":-0.7476581335067749,"11":0.2518237233161926,"12":0.09454327821731567,"13":-1.1555426120758057,"14":-2.8645596504211426,"15":-2.0721356868743896,"16":3.2385687828063965,"17":3.342655658721924,"18":-3.4015185832977295,"19":-1.5222663879394531,"20":1.9645416736602783,"21":-3.248262882232666,"22":-3.3083510398864746,"23":-0.04667102172970772,"24":0.48761969804763794,"25":-5.269390106201172,"26":-2.8347394466400146,"27":-1.021063208580017,"28":-2.534132719039917,"29":0.3140881061553955,"30":1.5154169797897339,"31":2.488853931427002,"32":1.3182976245880127,"33":-1.072188377380371,"34":-2.733677625656128,"35":-1.9337635040283203,"36":-3.8507766723632812,"37":0.3479737341403961,"38":2.360450029373169,"39":-1.4325792789459229,"40":-0.24720399081707,"41":0.22807173430919647,"42":-1.3947727680206299,"43":-2.5481438636779785,"44":-1.6571711301803589,"45":-0.6924331188201904,"46":-1.4172486066818237,"47":-0.9175893664360046,"48":1.2696820497512817,"49":2.397703170776367,"50":0.1688331961631775,"51":2.0394067764282227,"52":-0.36098581552505493,"53":-3.6070663928985596,"54":-2.358427047729492,"55":-2.463880777359009,"56":0.688978374004364,"57":0.1241021528840065,"58":-2.903045177459717,"59":-2.645322799682617,"60":0.4199512004852295,"61":-1.66177499294281,"62":-2.2381999492645264,"63":-5.949987411499023,"64":2.331947088241577}},"16":{"bias":0.6048459410667419,"weights":{"0":-0.3604694604873657,"1":1.2397630214691162,"2":0.21678343415260315,"3":1.305313229560852,"4":-1.1367566585540771,"5":1.0904383659362793,"6":0.09354948252439499,"7":2.5891237258911133,"8":0.8808667659759521,"9":-2.48502516746521,"10":-1.0605370998382568,"11":1.436720848083496,"12":0.7213968634605408,"13":0.37443339824676514,"14":1.0108915567398071,"15":-0.6971391439437866,"16":1.2942410707473755,"17":-0.27192366123199463,"18":1.9956356287002563,"19":0.4832533895969391,"20":-2.863382339477539,"21":1.4168750047683716,"22":-0.5898829102516174,"23":-0.7172430753707886,"24":0.24400314688682556,"25":-0.0692436695098877,"26":-3.2505040168762207,"27":-4.31174898147583,"28":2.2175099849700928,"29":-4.419187545776367,"30":-1.1968144178390503,"31":0.37338295578956604,"32":0.5925394892692566,"33":-3.0856566429138184,"34":-1.144070029258728,"35":-1.0756313800811768,"36":-4.723596096038818,"37":-1.9965633153915405,"38":-2.7273783683776855,"39":0.19026431441307068,"40":0.550301194190979,"41":1.9614371061325073,"42":-3.8633105754852295,"43":-2.222364664077759,"44":-0.5745862126350403,"45":-1.0376750230789185,"46":-0.9569607973098755,"47":0.32460954785346985,"48":1.4787172079086304,"49":-1.200713872909546,"50":-1.5908534526824951,"51":-2.5397348403930664,"52":-0.27471187710762024,"53":-0.4821563959121704,"54":-0.38305771350860596,"55":0.33896681666374207,"56":-2.63248872756958,"57":-0.7518454194068909,"58":0.8928813934326172,"59":-2.296064853668213,"60":-1.2615700960159302,"61":0.37729501724243164,"62":-0.9476438760757446,"63":-1.386937141418457,"64":0.7209429740905762}},"17":{"bias":0.7155106663703918,"weights":{"0":-0.4965405762195587,"1":0.4968319535255432,"2":2.046464443206787,"3":1.4663456678390503,"4":-0.6986513733863831,"5":1.3122601509094238,"6":-0.8901598453521729,"7":-1.621610164642334,"8":1.0338796377182007,"9":-1.8755251169204712,"10":-0.8236331939697266,"11":-1.2703142166137695,"12":-0.2793428599834442,"13":-0.12483660876750946,"14":0.004547571297734976,"15":-0.5121434330940247,"16":-0.5369348526000977,"17":-1.4209102392196655,"18":-0.7754552364349365,"19":-0.4712371528148651,"20":-1.7196972370147705,"21":-0.07396712899208069,"22":-1.2777551412582397,"23":-2.8498990535736084,"24":0.28655940294265747,"25":0.9315285682678223,"26":-0.29622194170951843,"27":-1.3730647563934326,"28":-0.627878725528717,"29":-1.3916360139846802,"30":-2.7109570503234863,"31":-3.4432032108306885,"32":-2.943030834197998,"33":-1.761350154876709,"34":1.2878220081329346,"35":-0.01641904190182686,"36":-4.954890251159668,"37":-1.9320529699325562,"38":-3.221759080886841,"39":-1.3554085493087769,"40":-2.2992024421691895,"41":1.2169897556304932,"42":-1.0018826723098755,"43":-2.4021995067596436,"44":-0.6092304587364197,"45":-3.3405542373657227,"46":0.7233479022979736,"47":-1.7005499601364136,"48":-1.0126408338546753,"49":1.834930658340454,"50":-2.6807920932769775,"51":0.5455645322799683,"52":-0.8426700830459595,"53":0.43100687861442566,"54":-0.7735565900802612,"55":2.381751537322998,"56":0.6538813710212708,"57":-2.0000009536743164,"58":3.3495495319366455,"59":-2.6570699214935303,"60":-1.185554027557373,"61":-2.8180723190307617,"62":3.033766031265259,"63":3.7844038009643555,"64":0.8923877477645874}},"18":{"bias":215.25440979003906,"weights":{"0":-0.16418133676052094,"1":18.968679428100586,"2":-33.278263092041016,"3":-13.218831062316895,"4":-2.5902743339538574,"5":-1.7708828449249268,"6":1.5443521738052368,"7":-8.439216613769531,"8":-1.9013986587524414,"9":-28.772653579711914,"10":1.6026406288146973,"11":-14.07962417602539,"12":3.1860744953155518,"13":-3.9295992851257324,"14":-2.2587897777557373,"15":5.471187114715576,"16":8.2659912109375,"17":-16.147197723388672,"18":-18.012229919433594,"19":4.763096809387207,"20":-15.565181732177734,"21":-1.1320306062698364,"22":-15.329794883728027,"23":5.5465850830078125,"24":2.910062551498413,"25":-35.658790588378906,"26":1.9206308126449585,"27":-1.511544942855835,"28":-12.112122535705566,"29":-12.335831642150879,"30":-6.317956447601318,"31":-5.5214338302612305,"32":-5.221479892730713,"33":16.009286880493164,"34":-23.842731475830078,"35":-6.2922282218933105,"36":-29.60480499267578,"37":5.830501556396484,"38":-22.89508628845215,"39":-18.835479736328125,"40":-24.447185516357422,"41":9.96549129486084,"42":-16.281862258911133,"43":5.446191787719727,"44":-5.027246475219727,"45":-27.48723793029785,"46":-12.958142280578613,"47":-15.063674926757812,"48":-9.51340389251709,"49":16.059410095214844,"50":3.9050867557525635,"51":-18.0892276763916,"52":-4.326247692108154,"53":-18.21884536743164,"54":-3.4462804794311523,"55":-11.869367599487305,"56":-28.68756103515625,"57":-11.977163314819336,"58":-9.806612968444824,"59":3.477182626724243,"60":-16.952754974365234,"61":-5.498560428619385,"62":-9.420832633972168,"63":-23.964906692504883,"64":-0.5139584541320801}},"19":{"bias":12.731441497802734,"weights":{"0":-0.10197596997022629,"1":-10.814657211303711,"2":15.716565132141113,"3":-9.038991928100586,"4":-18.47877311706543,"5":-0.41708633303642273,"6":14.8021879196167,"7":-7.154594898223877,"8":-0.5283761620521545,"9":21.347135543823242,"10":-29.0351619720459,"11":-29.748716354370117,"12":5.130311965942383,"13":2.9942078590393066,"14":-13.175487518310547,"15":-5.148300647735596,"16":28.25713348388672,"17":25.205089569091797,"18":-29.594038009643555,"19":15.46022891998291,"20":-12.259834289550781,"21":1.1237564086914062,"22":2.635928153991699,"23":-33.54391860961914,"24":-66.15164947509766,"25":-24.75222396850586,"26":-4.636813163757324,"27":-11.123719215393066,"28":-33.11655807495117,"29":-2.4495975971221924,"30":-13.468595504760742,"31":-27.12657356262207,"32":8.43108081817627,"33":12.467259407043457,"34":-33.161170959472656,"35":-18.69139289855957,"36":-14.934588432312012,"37":-40.44956970214844,"38":23.977294921875,"39":15.695049285888672,"40":7.242828369140625,"41":-20.367605209350586,"42":-11.260823249816895,"43":2.662827968597412,"44":-4.5391693115234375,"45":1.2325053215026855,"46":10.55462646484375,"47":18.420385360717773,"48":-27.030872344970703,"49":74.40347290039062,"50":-5.189650535583496,"51":0.06634373217821121,"52":47.38853073120117,"53":3.5363664627075195,"54":-44.06892013549805,"55":10.378321647644043,"56":34.30128479003906,"57":12.646014213562012,"58":11.556581497192383,"59":-16.27033805847168,"60":-13.238807678222656,"61":-37.425174713134766,"62":-9.50411319732666,"63":-23.826169967651367,"64":35.04620361328125}},"20":{"bias":17.850650787353516,"weights":{"0":0.34854212403297424,"1":-74.5488052368164,"2":3.3012232780456543,"3":18.27653694152832,"4":-15.212979316711426,"5":16.814043045043945,"6":4.9434919357299805,"7":5.7819504737854,"8":52.050140380859375,"9":-2.456932544708252,"10":-29.83995246887207,"11":3.998873233795166,"12":21.931427001953125,"13":-5.761916160583496,"14":1.6684573888778687,"15":-0.488308310508728,"16":76.57511901855469,"17":-24.47079849243164,"18":-30.104598999023438,"19":-1.3608824014663696,"20":-28.06252670288086,"21":18.399858474731445,"22":7.631168365478516,"23":-20.727222442626953,"24":-9.45693588256836,"25":26.27126693725586,"26":18.46624755859375,"27":-23.90569496154785,"28":21.587188720703125,"29":-6.5203046798706055,"30":5.201892852783203,"31":-7.94383430480957,"32":5.899805545806885,"33":7.269795894622803,"34":15.5112943649292,"35":14.347570419311523,"36":20.56307601928711,"37":-5.316049098968506,"38":-5.38753604888916,"39":13.140690803527832,"40":2.704932451248169,"41":15.021759033203125,"42":-0.16103634238243103,"43":10.368508338928223,"44":-0.6621412634849548,"45":-3.2295188903808594,"46":32.881595611572266,"47":10.90979290008545,"48":-13.282947540283203,"49":23.562177658081055,"50":-23.394075393676758,"51":-18.043582916259766,"52":-0.6087211966514587,"53":9.808606147766113,"54":8.061509132385254,"55":8.660998344421387,"56":-0.04516497999429703,"57":12.529802322387695,"58":11.285088539123535,"59":-11.292157173156738,"60":15.552494049072266,"61":-16.293128967285156,"62":-14.364234924316406,"63":-16.444339752197266,"64":1.5906000137329102}},"21":{"bias":1.4304137229919434,"weights":{"0":-0.4339108467102051,"1":2.4963808059692383,"2":1.4400814771652222,"3":1.3407119512557983,"4":2.3210160732269287,"5":1.4600735902786255,"6":-0.08097884058952332,"7":0.9223418831825256,"8":2.480571985244751,"9":-3.2449517250061035,"10":-3.775132179260254,"11":0.3367277979850769,"12":1.665031909942627,"13":1.0207306146621704,"14":-0.13742369413375854,"15":-0.8946903347969055,"16":0.19209720194339752,"17":-3.3203983306884766,"18":0.4886853098869324,"19":0.46428635716438293,"20":-3.13419246673584,"21":-0.044452473521232605,"22":0.09569820016622543,"23":-1.4084446430206299,"24":0.7744266986846924,"25":0.02648841217160225,"26":-2.887129783630371,"27":-6.431992053985596,"28":1.1944326162338257,"29":-3.9891774654388428,"30":-1.0301570892333984,"31":-0.4986497759819031,"32":-0.10517039895057678,"33":-2.342358350753784,"34":-1.270351767539978,"35":0.3946276307106018,"36":-5.690754413604736,"37":-1.6554571390151978,"38":-3.241642713546753,"39":-0.08482108265161514,"40":1.575832486152649,"41":3.668351173400879,"42":-7.382843494415283,"43":-2.622633934020996,"44":-0.18272608518600464,"45":-3.3245019912719727,"46":0.020893273875117302,"47":-0.5612097978591919,"48":3.023224115371704,"49":2.2123289108276367,"50":-0.41743385791778564,"51":-3.9563491344451904,"52":-1.5204745531082153,"53":-0.4156360328197479,"54":-1.2417596578598022,"55":1.0600730180740356,"56":-1.4987685680389404,"57":-3.001779079437256,"58":0.5399079918861389,"59":-3.7294294834136963,"60":-3.19364595413208,"61":-1.834253191947937,"62":-0.30113017559051514,"63":-1.2577228546142578,"64":3.1191301345825195}},"22":{"bias":34.390419006347656,"weights":{"0":0.8608227372169495,"1":23.372173309326172,"2":-27.055164337158203,"3":-23.775325775146484,"4":25.46197509765625,"5":-17.32461929321289,"6":12.17546558380127,"7":44.232139587402344,"8":19.886642456054688,"9":-14.366467475891113,"10":19.197490692138672,"11":-11.559751510620117,"12":-14.14505386352539,"13":-15.081523895263672,"14":-3.1318814754486084,"15":16.485626220703125,"16":40.28977966308594,"17":19.85658073425293,"18":9.466394424438477,"19":-4.418595790863037,"20":-15.949747085571289,"21":3.14278507232666,"22":-46.32209014892578,"23":7.746927738189697,"24":-20.691162109375,"25":7.603700637817383,"26":18.354846954345703,"27":-63.86597442626953,"28":-46.783843994140625,"29":-22.358543395996094,"30":8.275935173034668,"31":34.884803771972656,"32":-9.763218879699707,"33":24.118194580078125,"34":-0.8988209366798401,"35":5.497074604034424,"36":-51.22352981567383,"37":-37.81782913208008,"38":-16.52522087097168,"39":6.769175052642822,"40":9.73465633392334,"41":-34.811500549316406,"42":23.62282943725586,"43":-14.195331573486328,"44":-45.181331634521484,"45":-38.52023696899414,"46":-23.082443237304688,"47":3.8579046726226807,"48":17.478059768676758,"49":25.987974166870117,"50":-9.358104705810547,"51":-10.85396957397461,"52":-7.703293323516846,"53":-26.694856643676758,"54":-35.49110412597656,"55":-44.50471878051758,"56":-35.20121765136719,"57":28.974096298217773,"58":32.761932373046875,"59":-4.825267314910889,"60":-30.257957458496094,"61":31.783411026000977,"62":50.025211334228516,"63":29.196205139160156,"64":-4.409923553466797}},"23":{"bias":-37.64310073852539,"weights":{"0":-2.0192196369171143,"1":-7.431707382202148,"2":-16.79997444152832,"3":5.127403259277344,"4":-16.70388412475586,"5":-2.7436115741729736,"6":-5.040868759155273,"7":17.59781265258789,"8":8.456071853637695,"9":5.037822723388672,"10":-4.998187065124512,"11":10.928662300109863,"12":-1.281214952468872,"13":-9.062773704528809,"14":13.376232147216797,"15":27.24530601501465,"16":8.564613342285156,"17":-6.768991947174072,"18":4.090826511383057,"19":7.942909240722656,"20":26.08208656311035,"21":7.680865287780762,"22":-14.179044723510742,"23":-28.020341873168945,"24":17.6120662689209,"25":7.8667826652526855,"26":-9.70541000366211,"27":-19.545541763305664,"28":7.87606143951416,"29":9.59084415435791,"30":11.34302806854248,"31":11.236629486083984,"32":27.504812240600586,"33":-8.104154586791992,"34":-5.10931921005249,"35":-6.608587265014648,"36":-9.147171020507812,"37":11.980944633483887,"38":28.40664291381836,"39":14.669121742248535,"40":30.497943878173828,"41":35.7999267578125,"42":5.0671563148498535,"43":-17.32975959777832,"44":-4.350851535797119,"45":23.276485443115234,"46":-11.696125984191895,"47":23.618955612182617,"48":39.793983459472656,"49":-49.83771896362305,"50":0.7052097320556641,"51":14.57580852508545,"52":19.6290340423584,"53":-9.97241497039795,"54":-9.546194076538086,"55":0.836482048034668,"56":29.403993606567383,"57":22.37371826171875,"58":-11.03095531463623,"59":12.813325881958008,"60":-19.12626075744629,"61":-16.230283737182617,"62":-20.945228576660156,"63":-3.4832277297973633,"64":17.189189910888672}},"24":{"bias":110.051513671875,"weights":{"0":1.474348783493042,"1":-26.7177791595459,"2":20.047033309936523,"3":-14.492677688598633,"4":22.82970428466797,"5":29.02181053161621,"6":17.377885818481445,"7":23.82145881652832,"8":23.70319938659668,"9":-15.93874740600586,"10":-58.90396499633789,"11":35.4665412902832,"12":-12.596856117248535,"13":-22.220727920532227,"14":7.628828048706055,"15":43.13687515258789,"16":12.586467742919922,"17":-55.131011962890625,"18":-15.623515129089355,"19":-28.581043243408203,"20":13.256834983825684,"21":0.6115546226501465,"22":28.949161529541016,"23":39.15684127807617,"24":40.456241607666016,"25":-47.940616607666016,"26":-13.17984676361084,"27":-57.671287536621094,"28":-43.87443161010742,"29":1.0067710876464844,"30":32.299407958984375,"31":-10.743115425109863,"32":51.47550582885742,"33":-17.822343826293945,"34":-43.120609283447266,"35":-15.928779602050781,"36":-28.238079071044922,"37":-22.082902908325195,"38":20.67725944519043,"39":21.42477798461914,"40":-66.57159423828125,"41":-0.475996196269989,"42":-9.932973861694336,"43":-8.301708221435547,"44":-17.781982421875,"45":-37.337745666503906,"46":-8.03403091430664,"47":-6.038291931152344,"48":15.400075912475586,"49":22.796714782714844,"50":16.257287979125977,"51":46.10670471191406,"52":14.203546524047852,"53":14.453888893127441,"54":-53.282920837402344,"55":5.835344314575195,"56":20.693143844604492,"57":-2.8079895973205566,"58":4.934249401092529,"59":33.56809997558594,"60":10.688249588012695,"61":33.731719970703125,"62":-6.670897960662842,"63":16.577983856201172,"64":38.89864730834961}},"25":{"bias":-5.11461067199707,"weights":{"0":0.33429163694381714,"1":0.036730483174324036,"2":0.8958643674850464,"3":0.4806346297264099,"4":1.0201431512832642,"5":-0.16012157499790192,"6":-1.1245038509368896,"7":1.2580289840698242,"8":1.3319379091262817,"9":1.0442442893981934,"10":-5.7926225662231445,"11":-3.092571258544922,"12":2.2434275150299072,"13":-1.483820915222168,"14":-1.8295338153839111,"15":1.058730959892273,"16":1.580676555633545,"17":3.5569114685058594,"18":-5.213683605194092,"19":-2.735675096511841,"20":-0.045650649815797806,"21":2.297194004058838,"22":0.8129613995552063,"23":0.3007686734199524,"24":0.8402755856513977,"25":1.7166165113449097,"26":2.1927738189697266,"27":-1.5739370584487915,"28":1.025033950805664,"29":3.757173538208008,"30":1.8328694105148315,"31":3.693098545074463,"32":1.8886842727661133,"33":0.4285792112350464,"34":3.455508232116699,"35":4.424333572387695,"36":-0.49579140543937683,"37":2.6837096214294434,"38":1.3940069675445557,"39":2.8394460678100586,"40":1.7989331483840942,"41":-4.346948623657227,"42":9.47848129272461,"43":0.8008673787117004,"44":1.2590997219085693,"45":1.9433016777038574,"46":1.0165753364562988,"47":-0.3611188232898712,"48":5.045554161071777,"49":-0.900775134563446,"50":-3.893188714981079,"51":-2.4393110275268555,"52":3.5004312992095947,"53":4.403891563415527,"54":5.507349014282227,"55":4.6444172859191895,"56":0.7137216925621033,"57":-1.1320310831069946,"58":0.2861609160900116,"59":-0.6950950026512146,"60":-2.7459702491760254,"61":-5.194579124450684,"62":1.864733099937439,"63":3.435249090194702,"64":1.6205251216888428}},"26":{"bias":7.944016933441162,"weights":{"0":-0.6610970497131348,"1":15.157362937927246,"2":13.904650688171387,"3":-21.661304473876953,"4":5.550048351287842,"5":-11.140426635742188,"6":-29.251224517822266,"7":-23.375673294067383,"8":-5.442324638366699,"9":-19.037015914916992,"10":4.575289249420166,"11":9.062095642089844,"12":-20.5129451751709,"13":-15.863027572631836,"14":-10.785752296447754,"15":-3.4972686767578125,"16":-6.933374404907227,"17":36.189144134521484,"18":-21.71675682067871,"19":23.828536987304688,"20":40.43514633178711,"21":8.669304847717285,"22":-9.3627347946167,"23":16.811277389526367,"24":11.419947624206543,"25":10.643243789672852,"26":5.298823356628418,"27":-4.303382873535156,"28":-22.004182815551758,"29":-3.023233413696289,"30":-44.55617904663086,"31":-25.09787368774414,"32":9.514605522155762,"33":-16.593490600585938,"34":-16.224151611328125,"35":-0.9495435357093811,"36":8.045927047729492,"37":-2.30475115776062,"38":-27.637392044067383,"39":-17.95176124572754,"40":20.485267639160156,"41":16.709739685058594,"42":9.131147384643555,"43":5.897823333740234,"44":-46.02739334106445,"45":-13.766181945800781,"46":-37.385494232177734,"47":-0.619290292263031,"48":-14.542975425720215,"49":16.128013610839844,"50":3.692749500274658,"51":-41.529571533203125,"52":-14.60471248626709,"53":27.103803634643555,"54":17.65764808654785,"55":-30.068811416625977,"56":26.19478416442871,"57":-12.123315811157227,"58":3.925185203552246,"59":-22.533098220825195,"60":-22.25094223022461,"61":-15.050393104553223,"62":25.07454490661621,"63":22.81411361694336,"64":35.117515563964844}},"27":{"bias":-17.20926856994629,"weights":{"0":0.29720476269721985,"1":0.9095820188522339,"2":1.4421781301498413,"3":-0.42492538690567017,"4":0.6586852669715881,"5":0.19208784401416779,"6":1.3871668577194214,"7":2.026263952255249,"8":2.805415153503418,"9":4.8235321044921875,"10":2.489065647125244,"11":-2.6251211166381836,"12":-1.2579212188720703,"13":1.1890842914581299,"14":3.437098264694214,"15":2.3945565223693848,"16":0.10409974306821823,"17":0.9282757639884949,"18":3.5767011642456055,"19":2.3172945976257324,"20":0.5301846861839294,"21":6.00632905960083,"22":1.0053430795669556,"23":-1.1940172910690308,"24":-1.2137395143508911,"25":2.5056467056274414,"26":2.2922215461730957,"27":6.828067779541016,"28":9.239195823669434,"29":2.3703572750091553,"30":0.09161225706338882,"31":1.3211778402328491,"32":-0.014856180176138878,"33":2.9325897693634033,"34":5.824591636657715,"35":5.416942119598389,"36":1.8219252824783325,"37":3.421623706817627,"38":0.3551938831806183,"39":2.4246554374694824,"40":-0.5820313096046448,"41":-1.443054437637329,"42":5.941409111022949,"43":3.9023027420043945,"44":0.8886295557022095,"45":-0.41579553484916687,"46":2.2981202602386475,"47":-1.1461364030838013,"48":0.6746129393577576,"49":0.9693685173988342,"50":1.9223521947860718,"51":3.3245787620544434,"52":1.4311573505401611,"53":3.163313627243042,"54":-1.359047532081604,"55":-1.0810198783874512,"56":-0.42107003927230835,"57":-0.9885813593864441,"58":-3.3709166049957275,"59":2.6842615604400635,"60":2.60849666595459,"61":-2.9477345943450928,"62":0.5010281205177307,"63":-4.674380779266357,"64":-4.322518825531006}},"28":{"bias":50.942657470703125,"weights":{"0":0.3429659903049469,"1":7.4283766746521,"2":-14.936347007751465,"3":22.64142608642578,"4":12.5509033203125,"5":22.19985580444336,"6":-8.112781524658203,"7":-11.270027160644531,"8":8.623087882995605,"9":4.493020534515381,"10":-18.115970611572266,"11":1.1720465421676636,"12":-14.562580108642578,"13":9.795219421386719,"14":-7.535149574279785,"15":15.245559692382812,"16":14.450410842895508,"17":-7.027579307556152,"18":-23.14504051208496,"19":-15.89434814453125,"20":-6.4145283699035645,"21":-35.28670120239258,"22":0.8514196872711182,"23":-10.065119743347168,"24":28.97170639038086,"25":20.905675888061523,"26":27.61294937133789,"27":9.301719665527344,"28":-3.455054998397827,"29":-2.490440607070923,"30":-15.439681053161621,"31":3.028320789337158,"32":-26.286489486694336,"33":11.032328605651855,"34":1.7847696542739868,"35":-2.3315560817718506,"36":-23.79730224609375,"37":-5.4345855712890625,"38":-1.01344633102417,"39":-10.037158966064453,"40":-44.517601013183594,"41":7.104532241821289,"42":-12.501936912536621,"43":-6.7208709716796875,"44":-1.7717498540878296,"45":-33.336814880371094,"46":0.8113317489624023,"47":-32.443233489990234,"48":39.16517639160156,"49":33.11384582519531,"50":3.835301399230957,"51":11.029101371765137,"52":-40.16224670410156,"53":-25.74808120727539,"54":-1.5721402168273926,"55":-9.024954795837402,"56":-45.43134307861328,"57":4.991954803466797,"58":1.7965006828308105,"59":28.269723892211914,"60":-24.879087448120117,"61":2.909489393234253,"62":-35.44087219238281,"63":-36.058109283447266,"64":31.1856632232666}},"29":{"bias":15.726073265075684,"weights":{"0":2.7015669345855713,"1":11.823443412780762,"2":7.7201619148254395,"3":12.927183151245117,"4":3.0335264205932617,"5":-59.67559814453125,"6":1.806227445602417,"7":-17.347698211669922,"8":9.294785499572754,"9":-9.127830505371094,"10":-5.14824104309082,"11":-33.2825927734375,"12":1.1894866228103638,"13":-21.665735244750977,"14":-60.640010833740234,"15":-33.28748321533203,"16":-17.995389938354492,"17":33.10200119018555,"18":-38.650596618652344,"19":-6.77007532119751,"20":13.56051254272461,"21":-14.275091171264648,"22":-2.7933366298675537,"23":-64.3622817993164,"24":-32.37347412109375,"25":0.2685583233833313,"26":7.86728048324585,"27":49.5098876953125,"28":-0.7465327978134155,"29":11.114070892333984,"30":0.26715323328971863,"31":54.91807174682617,"32":52.02044677734375,"33":6.166146755218506,"34":14.373184204101562,"35":-6.188175678253174,"36":-0.2816927134990692,"37":29.419044494628906,"38":6.172713279724121,"39":18.886201858520508,"40":-17.842100143432617,"41":-74.50460815429688,"42":-8.14338207244873,"43":-9.716561317443848,"44":45.30833435058594,"45":19.637372970581055,"46":-38.29433059692383,"47":-13.749007225036621,"48":26.24416732788086,"49":32.76880645751953,"50":31.78648567199707,"51":5.8804850578308105,"52":-30.435279846191406,"53":-22.634550094604492,"54":12.519397735595703,"55":-26.917724609375,"56":-15.72851276397705,"57":80.4982681274414,"58":17.319154739379883,"59":-38.021583557128906,"60":41.369712829589844,"61":-84.0001220703125,"62":-48.20606231689453,"63":-69.4630126953125,"64":-24.463132858276367}},"30":{"bias":-6.951235771179199,"weights":{"0":0.17402638494968414,"1":-4.742824554443359,"2":-2.894697904586792,"3":2.779764175415039,"4":-3.0651321411132812,"5":-3.414768695831299,"6":0.5546939373016357,"7":-0.318523108959198,"8":4.1087822914123535,"9":-1.7816840410232544,"10":-0.34654659032821655,"11":-1.2110196352005005,"12":0.07947655022144318,"13":-3.2783048152923584,"14":1.5369296073913574,"15":0.683271050453186,"16":0.7084426879882812,"17":-0.48028016090393066,"18":0.8742184638977051,"19":0.6990752816200256,"20":2.525785207748413,"21":5.722334861755371,"22":0.607551097869873,"23":-0.8820742964744568,"24":-4.44653844833374,"25":0.3228163719177246,"26":2.2881648540496826,"27":7.646152496337891,"28":4.650432586669922,"29":5.683818340301514,"30":4.339864730834961,"31":-0.18743807077407837,"32":1.0478105545043945,"33":1.7479807138442993,"34":2.026724100112915,"35":3.3810222148895264,"36":8.211188316345215,"37":2.886528730392456,"38":2.568603038787842,"39":3.762190103530884,"40":0.9978740811347961,"41":-6.427270412445068,"42":6.090080261230469,"43":1.143020510673523,"44":0.1732311248779297,"45":1.473371148109436,"46":3.983943223953247,"47":2.7638864517211914,"48":1.4885283708572388,"49":5.3859100341796875,"50":-4.968881130218506,"51":1.6048072576522827,"52":2.479688882827759,"53":1.2946624755859375,"54":3.167480945587158,"55":0.9141051173210144,"56":-2.0377442836761475,"57":-5.338897228240967,"58":2.4989473819732666,"59":4.4427289962768555,"60":0.5710005164146423,"61":3.401036262512207,"62":-0.6100509762763977,"63":-1.1802858114242554,"64":-6.537374019622803}},"31":{"bias":6.365931034088135,"weights":{"0":3.6876115798950195,"1":14.581021308898926,"2":-11.388647079467773,"3":15.68715763092041,"4":32.93853759765625,"5":6.082485675811768,"6":-6.976030349731445,"7":-0.06952173262834549,"8":-7.4347405433654785,"9":-7.0141706466674805,"10":18.10352897644043,"11":-31.463388442993164,"12":-6.062706470489502,"13":-20.602657318115234,"14":25.216379165649414,"15":-18.0465145111084,"16":-22.131383895874023,"17":-30.706310272216797,"18":28.926137924194336,"19":-28.789047241210938,"20":-39.65537643432617,"21":-23.027446746826172,"22":-34.14868927001953,"23":23.162273406982422,"24":4.39442777633667,"25":-11.088340759277344,"26":-12.074031829833984,"27":-71.65505981445312,"28":53.026546478271484,"29":9.361170768737793,"30":-60.58997344970703,"31":3.2874066829681396,"32":-9.210280418395996,"33":-17.725547790527344,"34":-9.055428504943848,"35":65.84379577636719,"36":18.81317901611328,"37":-28.129297256469727,"38":-41.35301971435547,"39":-12.373645782470703,"40":13.826716423034668,"41":-16.226253509521484,"42":27.952707290649414,"43":-37.99420928955078,"44":-12.6791410446167,"45":-15.389312744140625,"46":64.32111358642578,"47":60.04646682739258,"48":0.1556468904018402,"49":-28.87076759338379,"50":-7.038334369659424,"51":-59.9388313293457,"52":-15.18275260925293,"53":2.9047586917877197,"54":-30.19597816467285,"55":15.205519676208496,"56":-59.293113708496094,"57":0.2216951847076416,"58":23.395374298095703,"59":-4.409100532531738,"60":-21.18324851989746,"61":1.6203984022140503,"62":16.589717864990234,"63":45.05561447143555,"64":1.7527565956115723}}},{"0":{"bias":4.105236053466797,"weights":{"0":-40.07335662841797,"1":-40.831703186035156,"2":39.143863677978516,"3":2.558161497116089,"4":-46.473182678222656,"5":-40.36256790161133,"6":-0.8304263353347778,"7":-4.117898941040039,"8":-0.1256602257490158,"9":-2.9322052001953125,"10":40.246334075927734,"11":-43.53229522705078,"12":-4.432517051696777,"13":-40.198272705078125,"14":-3.818624496459961,"15":4.091986656188965,"16":0.8823915719985962,"17":0.703037440776825,"18":-38.09983444213867,"19":-40.95503616333008,"20":-32.007225036621094,"21":1.146009922027588,"22":-46.349483489990234,"23":42.933387756347656,"24":-40.316802978515625,"25":-0.1509133279323578,"26":-41.618560791015625,"27":-0.6472243070602417,"28":-38.69445037841797,"29":-40.32428741455078,"30":-0.7104242444038391,"31":-46.11679458618164}}}],"outputLookup":false,"inputLookup":false,"activation":"sigmoid","trainOpts":{"iterations":20000,"errorThresh":0.005,"log":true,"logPeriod":2,"learningRate":0.3,"momentum":0.1,"callbackPeriod":10,"beta1":0.9,"beta2":0.999,"epsilon":1e-8}}